{
  "model_type": "neurx_feature_encoder",
  "version": 1,
  "trained_at": "2026-04-01T01:34:15.645256+00:00",
  "feature_names": [
    "title_score",
    "abstract_score",
    "claim_score",
    "keyword_hits",
    "matched_count",
    "token_count",
    "lexical_score",
    "semantic_score",
    "lexical_norm",
    "semantic_norm"
  ],
  "feature_means": [
    0.8,
    0.8,
    0.4666666666666667,
    2.3333333333333335,
    1.9333333333333333,
    3.7333333333333334,
    10.866666666666667,
    0.2989105938756731,
    0.4027845479888491,
    0.4399371447722714
  ],
  "feature_stds": [
    1.0456258094238748,
    0.8326663997864532,
    0.8055363982396383,
    2.4675674031095665,
    1.4817407180595246,
    0.4422166387140533,
    11.848300393821141,
    0.2748381458698068,
    0.42862512070472264,
    0.40140982919770596
  ],
  "embedding_dim": 10,
  "extractor": {
    "weights": [
      [
        0.06887491792440414,
        0.7850305438041687,
        -2.671548366546631,
        0.8459767699241638,
        -1.5480668544769287,
        -2.0385334491729736,
        -0.14347906410694122,
        -0.009733293205499649
      ],
      [
        0.36416882276535034,
        -0.6917213201522827,
        1.9868664741516113,
        0.5177470445632935,
        -0.04481189697980881,
        1.5134904384613037,
        -0.5165918469429016,
        -0.5925626158714294
      ],
      [
        0.3331631124019623,
        -0.3662444055080414,
        3.018738031387329,
        0.08455605059862137,
        -0.08997686952352524,
        2.051776170730591,
        -0.4199412167072296,
        0.11213723570108414
      ],
      [
        0.3817463517189026,
        0.9562703371047974,
        -2.168391466140747,
        0.4557017683982849,
        0.2487937957048416,
        -2.2989325523376465,
        -1.015293002128601,
        -0.38138240575790405
      ],
      [
        1.461827278137207,
        1.2469117641448975,
        -2.034508466720581,
        0.601981520652771,
        -0.5645079016685486,
        -2.003812551498413,
        -0.677092969417572,
        -0.8182657957077026
      ],
      [
        -0.26202598214149475,
        0.5872026085853577,
        -0.8490208387374878,
        0.09480184316635132,
        0.012346566654741764,
        -0.7614535689353943,
        -0.067769855260849,
        0.7256882190704346
      ],
      [
        0.9960786700248718,
        0.9690011739730835,
        -1.069161295890808,
        0.09465038776397705,
        -0.34812769293785095,
        -0.6754441857337952,
        0.25119078159332275,
        -0.8344435691833496
      ],
      [
        1.112937092781067,
        0.4519921541213989,
        0.14867357909679413,
        1.1219990253448486,
        -1.1844594478607178,
        -0.06265519559383392,
        0.1937352865934372,
        -1.3898714780807495
      ],
      [
        -0.07722518593072891,
        0.5385218858718872,
        -1.8846544027328491,
        0.9654766917228699,
        -0.5497937798500061,
        -0.9359326958656311,
        -0.3348938226699829,
        -0.7961058020591736
      ],
      [
        -0.2057969719171524,
        0.569922685623169,
        -0.21870969235897064,
        0.18697379529476166,
        -0.008955694735050201,
        -0.22685275971889496,
        -1.1574589014053345,
        -1.2073043584823608
      ]
    ],
    "bias": [
      0.780307412147522,
      1.5397957563400269,
      -2.614569664001465,
      0.7301052808761597,
      -0.46981948614120483,
      -2.2530128955841064,
      -0.5593050122261047,
      -0.3647948205471039
    ],
    "activation": "sigmoid"
  },
  "head": {
    "weights": [
      1.5626598596572876
    ],
    "bias": 0.7666005492210388,
    "activation": "sigmoid"
  },
  "embedding_summary": {
    "count": 15,
    "dims": 8,
    "mean": [
      0.4456694718450308,
      0.4948799379169941,
      0.4429709966579821,
      0.4124090294043223,
      0.5879376371585143,
      0.45003277631794847,
      0.5516750463672603,
      0.6233553079354655
    ],
    "std": [
      0.4068217815939868,
      0.39771012091643876,
      0.44291709779949795,
      0.42434782483516575,
      0.42273970280633355,
      0.4324967376411816,
      0.396447767242938,
      0.44675971975136514
    ]
  },
  "metrics": {
    "queries": 5,
    "recall_at_k": 0.8333333333333333,
    "mrr_at_k": 1.0,
    "ndcg_at_k": 0.9459487321811977,
    "rows": [
      {
        "query_id": "q1",
        "topk": [
          "CN202410001A",
          "CN202355566A",
          "JP2023176543A"
        ],
        "recall": 0.6666666666666666,
        "mrr": 1.0,
        "ndcg": 0.8124242481930318
      },
      {
        "query_id": "q2",
        "topk": [
          "CN202311998B",
          "CN202209876U",
          "JP2023176543A",
          "CN202355566A"
        ],
        "recall": 1.0,
        "mrr": 1.0,
        "ndcg": 1.0
      },
      {
        "query_id": "q3",
        "topk": [
          "JP2023176543A",
          "CN202410001A"
        ],
        "recall": 0.5,
        "mrr": 1.0,
        "ndcg": 0.9173194127129571
      },
      {
        "query_id": "q4",
        "topk": [
          "CN202209876U",
          "CN202311998B",
          "CN202410001A",
          "JP2023176543A"
        ],
        "recall": 1.0,
        "mrr": 1.0,
        "ndcg": 1.0
      },
      {
        "query_id": "q5",
        "topk": [
          "CN202355566A",
          "CN202410001A"
        ],
        "recall": 1.0,
        "mrr": 1.0,
        "ndcg": 1.0
      }
    ],
    "train_mse": 3.3566425552140466e-05,
    "candidate_k": 24,
    "embedding_dim": 8
  }
}
