{
  "model_type": "neurx_feature_encoder",
  "version": 1,
  "trained_at": "2026-04-01T06:36:14.257311+00:00",
  "feature_names": [
    "title_score",
    "abstract_score",
    "claim_score",
    "keyword_hits",
    "matched_count",
    "token_count",
    "lexical_score",
    "semantic_score",
    "lexical_norm",
    "semantic_norm"
  ],
  "feature_means": [
    0.8,
    0.8,
    0.4666666666666667,
    2.3333333333333335,
    1.9333333333333333,
    3.7333333333333334,
    10.866666666666667,
    0.2989105938756731,
    0.4027845479888491,
    0.4399371447722714
  ],
  "feature_stds": [
    1.0456258094238748,
    0.8326663997864532,
    0.8055363982396383,
    2.4675674031095665,
    1.4817407180595246,
    0.4422166387140533,
    11.848300393821141,
    0.2748381458698068,
    0.42862512070472264,
    0.40140982919770596
  ],
  "embedding_dim": 10,
  "extractor": {
    "weights": [
      [
        0.6580971364672075,
        -0.5833709736478583,
        -1.0227414627121922,
        0.039627258478179224,
        -1.510101206611491,
        0.050423664750228595,
        1.014751160791157,
        0.14220096442008703
      ],
      [
        -0.46400947869091863,
        0.14267279690168316,
        0.18163841599800504,
        0.7000857677172119,
        0.4044774054188783,
        -0.7648972735198779,
        0.5320231816117451,
        0.9605855998390769
      ],
      [
        -0.4068819534396434,
        0.4280600818720976,
        0.36788815102649985,
        0.5603179610868939,
        0.5647797172469324,
        -0.9495632972573502,
        0.7696518796360716,
        0.40843048906621415
      ],
      [
        0.590180450088395,
        -1.517488022378365,
        -0.9725102993937559,
        -1.272459087172056,
        -1.1591754253096724,
        1.5655730204583198,
        0.224490286688707,
        0.19601186221159486
      ],
      [
        0.7076249230153432,
        -0.6933669358627258,
        -0.7224033908577042,
        -0.7668684583117665,
        -1.337976741691374,
        0.6691988184153361,
        0.12145649215457671,
        0.6482527607827896
      ],
      [
        -0.04670423490417795,
        -0.12822217408176234,
        -0.2095802977461261,
        -0.2204396974671063,
        -0.24466271044301094,
        0.47915320559787444,
        0.014551710682311769,
        -0.752809972105236
      ],
      [
        0.6568301540462269,
        -0.7985665345178629,
        -1.2135207361503582,
        -0.7680831200604279,
        -0.8860469403896567,
        1.2875924786904758,
        0.7908926901319033,
        0.7514604699623916
      ],
      [
        0.44122731644904156,
        -0.581377026912135,
        -0.7753324427865941,
        -0.51025036734257,
        0.09922095194817108,
        -0.11683018372983808,
        0.4580267440962897,
        0.35520047239806884
      ],
      [
        0.4695165005417298,
        -0.286086396418733,
        -0.13131086023207292,
        -0.10708553444121584,
        -0.25716149698456864,
        0.981344562312552,
        -0.18188654228520323,
        0.7539003520492856
      ],
      [
        0.57224153877118,
        0.22729155784755534,
        0.4414638620156236,
        -1.0218612482642009,
        -0.1157263999191908,
        0.661286993484465,
        1.0925675272580095,
        0.8598030281448882
      ]
    ],
    "bias": [
      0.7788836878501805,
      -1.425156875324032,
      -1.4959973613262858,
      -0.8591602348406308,
      -1.8067167658981793,
      1.4651236824915135,
      0.10156627283877014,
      0.1461469595961227
    ],
    "activation": "sigmoid"
  },
  "head": {
    "weights": [
      1.8110695768352523
    ],
    "bias": 0.41800587836359887,
    "activation": "sigmoid"
  },
  "embedding_summary": {
    "count": 15,
    "dims": 8,
    "mean": [
      0.47251570328841214,
      0.4689678302984642,
      0.47757689156708605,
      0.5105312919235481,
      0.4597633249214405,
      0.5366209171095632,
      0.379220829257325,
      0.38374025942771833
    ],
    "std": [
      0.3901630691452752,
      0.37820828044140065,
      0.377112422903253,
      0.3936517598773008,
      0.3887406938298286,
      0.39051570537656133,
      0.43777439243559,
      0.4381850297606683
    ]
  },
  "metrics": {
    "queries": 5,
    "recall_at_k": 0.8333333333333333,
    "mrr_at_k": 1.0,
    "ndcg_at_k": 0.9459487321811977,
    "rows": [
      {
        "query_id": "q1",
        "topk": [
          "CN202410001A",
          "CN202355566A",
          "JP2023176543A"
        ],
        "recall": 0.6666666666666666,
        "mrr": 1.0,
        "ndcg": 0.8124242481930318
      },
      {
        "query_id": "q2",
        "topk": [
          "CN202311998B",
          "CN202209876U",
          "JP2023176543A",
          "CN202355566A"
        ],
        "recall": 1.0,
        "mrr": 1.0,
        "ndcg": 1.0
      },
      {
        "query_id": "q3",
        "topk": [
          "JP2023176543A",
          "CN202410001A"
        ],
        "recall": 0.5,
        "mrr": 1.0,
        "ndcg": 0.9173194127129571
      },
      {
        "query_id": "q4",
        "topk": [
          "CN202209876U",
          "CN202311998B",
          "CN202410001A",
          "JP2023176543A"
        ],
        "recall": 1.0,
        "mrr": 1.0,
        "ndcg": 1.0
      },
      {
        "query_id": "q5",
        "topk": [
          "CN202355566A",
          "CN202410001A"
        ],
        "recall": 1.0,
        "mrr": 1.0,
        "ndcg": 1.0
      }
    ],
    "train_mse": 1.0985242521017026e-05,
    "candidate_k": 24,
    "embedding_dim": 8
  }
}
