{
  "model_type": "neurx_feature_encoder",
  "version": 1,
  "trained_at": "2026-04-01T06:37:31.482536+00:00",
  "feature_names": [
    "title_score",
    "abstract_score",
    "claim_score",
    "keyword_hits",
    "matched_count",
    "token_count",
    "lexical_score",
    "semantic_score",
    "lexical_norm",
    "semantic_norm"
  ],
  "feature_means": [
    0.8,
    0.8,
    0.4666666666666667,
    2.3333333333333335,
    1.9333333333333333,
    3.7333333333333334,
    10.866666666666667,
    0.2989105938756731,
    0.4027845479888491,
    0.4399371447722714
  ],
  "feature_stds": [
    1.0456258094238748,
    0.8326663997864532,
    0.8055363982396383,
    2.4675674031095665,
    1.4817407180595246,
    0.4422166387140533,
    11.848300393821141,
    0.2748381458698068,
    0.42862512070472264,
    0.40140982919770596
  ],
  "embedding_dim": 8,
  "extractor": {
    "weights": [
      [
        -0.12785077055251293,
        -0.00653892298264888,
        -0.46436622029484687,
        -0.5144626472191616,
        -0.73522979530592,
        0.41127579156670363,
        -0.8727728067197531,
        -1.3302329128440136,
        -0.10626865162606405,
        -0.28570743794743353
      ],
      [
        0.9116486011086039,
        -0.737271387133475,
        -1.2147397804935327,
        1.2556409910897042,
        1.5081133262970148,
        0.8423842663592284,
        1.6113240242049445,
        0.6873124699691723,
        0.4059875853970551,
        -0.5209055498537914
      ],
      [
        1.7062485505359393,
        2.150164312514446,
        -0.23888718482655125,
        0.4046199174318028,
        -0.6960933918009627,
        0.5145185492262583,
        1.3233492775699824,
        0.6314482513145465,
        0.6477126516193961,
        1.0776495853384487
      ],
      [
        -0.8494165161597105,
        -0.9647391384930605,
        -0.05041747966884562,
        0.40559894466713436,
        -0.536419137695407,
        -0.3218718442141139,
        -0.9379497363572508,
        -0.6804566748486096,
        -1.274074237506274,
        -0.14780345424293403
      ],
      [
        -0.20352545461223984,
        -0.24791806399246907,
        -0.05943986253881393,
        1.5138966344946176,
        1.5330183282392997,
        -1.0998588738304984,
        0.4856783483293867,
        0.6877974629392946,
        0.6084066530046882,
        0.8784353591934804
      ],
      [
        1.2500234256208258,
        -0.3703563310205,
        0.8122130442701029,
        0.9364125620666728,
        0.6038424735497308,
        -1.5061451554624001,
        0.4288411798862885,
        0.46062610520894787,
        0.9473594020947275,
        1.3202326981329782
      ],
      [
        1.131704571184368,
        0.1353121516636168,
        -0.7859958508155339,
        1.5045736095670899,
        0.06952238009402882,
        0.3506689396813299,
        0.8681543487184067,
        0.0059731265448,
        1.0606382872235753,
        0.3347334215705631
      ],
      [
        -0.3661937024096299,
        1.1919431406285383,
        0.8106842066239967,
        -1.4377957942467003,
        -1.9975263492347328,
        -0.4933870247638206,
        -0.1907512112389886,
        -0.7000458062567029,
        -0.34125605575771834,
        -0.5744746667581172
      ]
    ],
    "bias": [
      -0.4137977409656945,
      1.3281276939752171,
      0.5110880666417346,
      -0.26635718105365624,
      0.4958077976281696,
      0.22537746367027475,
      1.1206912453581102,
      -1.2514868378089898
    ],
    "activation": "sigmoid"
  },
  "head": {
    "weights": [
      -0.9155320730515294,
      2.4612537797006624,
      1.0478228653354338,
      -1.5465077024741716,
      0.842443449866108,
      0.8543226098618237,
      0.8149530770309373,
      -1.9985876714604087
    ],
    "bias": -0.2574692531581821,
    "activation": "sigmoid"
  },
  "embedding_summary": {
    "count": 15,
    "dims": 8,
    "mean": [
      0.5948626602011894,
      0.5130230143393949,
      0.4013717422504984,
      0.6030372238823422,
      0.4211478439048814,
      0.3839086597810917,
      0.45952559467558546,
      0.48190355092257325
    ],
    "std": [
      0.42683556778000775,
      0.4092604012683981,
      0.45289417979789337,
      0.43569477782313215,
      0.4512234458073829,
      0.4544719021784188,
      0.41155841737659277,
      0.4161631629391168
    ]
  },
  "metrics": {
    "queries": 5,
    "recall_at_k": 0.8333333333333333,
    "mrr_at_k": 1.0,
    "ndcg_at_k": 0.9459487321811977,
    "rows": [
      {
        "query_id": "q1",
        "topk": [
          "CN202410001A",
          "CN202355566A",
          "JP2023176543A"
        ],
        "recall": 0.6666666666666666,
        "mrr": 1.0,
        "ndcg": 0.8124242481930318
      },
      {
        "query_id": "q2",
        "topk": [
          "CN202311998B",
          "CN202209876U",
          "JP2023176543A",
          "CN202355566A"
        ],
        "recall": 1.0,
        "mrr": 1.0,
        "ndcg": 1.0
      },
      {
        "query_id": "q3",
        "topk": [
          "JP2023176543A",
          "CN202410001A"
        ],
        "recall": 0.5,
        "mrr": 1.0,
        "ndcg": 0.9173194127129571
      },
      {
        "query_id": "q4",
        "topk": [
          "CN202209876U",
          "CN202311998B",
          "CN202410001A",
          "JP2023176543A"
        ],
        "recall": 1.0,
        "mrr": 1.0,
        "ndcg": 1.0
      },
      {
        "query_id": "q5",
        "topk": [
          "CN202355566A",
          "CN202410001A"
        ],
        "recall": 1.0,
        "mrr": 1.0,
        "ndcg": 1.0
      }
    ],
    "train_mse": 9.759691113326472e-05,
    "candidate_k": 24,
    "embedding_dim": 8
  }
}
