{
  "model_type": "neurx_feature_encoder",
  "version": 1,
  "trained_at": "2026-04-01T01:42:40.346415+00:00",
  "feature_names": [
    "title_score",
    "abstract_score",
    "claim_score",
    "keyword_hits",
    "matched_count",
    "token_count",
    "lexical_score",
    "semantic_score",
    "lexical_norm",
    "semantic_norm"
  ],
  "feature_means": [
    0.8,
    0.8,
    0.4666666666666667,
    2.3333333333333335,
    1.9333333333333333,
    3.7333333333333334,
    10.866666666666667,
    0.2989105938756731,
    0.4027845479888491,
    0.4399371447722714
  ],
  "feature_stds": [
    1.0456258094238748,
    0.8326663997864532,
    0.8055363982396383,
    2.4675674031095665,
    1.4817407180595246,
    0.4422166387140533,
    11.848300393821141,
    0.2748381458698068,
    0.42862512070472264,
    0.40140982919770596
  ],
  "embedding_dim": 10,
  "extractor": {
    "weights": [
      [
        -1.5102593898773193,
        0.05263109505176544,
        -0.4458649456501007,
        -1.0052436590194702,
        0.8244412541389465,
        1.46253502368927,
        0.5254908204078674,
        0.11189071089029312
      ],
      [
        -0.12214598804712296,
        -0.46239206194877625,
        -0.2147916853427887,
        0.18931184709072113,
        0.4450024962425232,
        -0.4064580500125885,
        -0.19204388558864594,
        -1.7717523574829102
      ],
      [
        0.2097628116607666,
        -0.13931545615196228,
        -0.5173758268356323,
        -0.565043568611145,
        -0.1837034523487091,
        -0.7425281405448914,
        -0.011547465808689594,
        -1.100150227546692
      ],
      [
        -1.0155657529830933,
        -1.1500667333602905,
        -1.1799383163452148,
        0.27301856875419617,
        0.8794825077056885,
        0.8082948327064514,
        0.042076047509908676,
        1.663066029548645
      ],
      [
        -0.5536737442016602,
        -0.23240888118743896,
        -1.4606322050094604,
        -1.0962275266647339,
        1.0912381410598755,
        1.7206491231918335,
        0.6156348586082458,
        1.8740437030792236
      ],
      [
        -0.34259963035583496,
        0.43938228487968445,
        1.8706005811691284,
        -0.3719210922718048,
        0.3534829020500183,
        1.0524693727493286,
        0.20213553309440613,
        0.432493656873703
      ],
      [
        -0.4102718234062195,
        0.5520848035812378,
        -0.5456028580665588,
        -0.49546143412590027,
        0.4912780225276947,
        0.06739474087953568,
        1.4412730932235718,
        0.824361264705658
      ],
      [
        -0.2944353520870209,
        -0.5113052129745483,
        -0.5094910860061646,
        -0.1554049551486969,
        0.24172155559062958,
        0.23203204572200775,
        0.28709596395492554,
        0.6150429844856262
      ],
      [
        -1.1430890560150146,
        -1.5516971349716187,
        -0.7542833089828491,
        0.10271325707435608,
        0.5304208397865295,
        0.8027110695838928,
        1.1938732862472534,
        0.8462080359458923
      ],
      [
        0.042385123670101166,
        -0.15536637604236603,
        -0.8360906839370728,
        -1.1425632238388062,
        -0.40387603640556335,
        -0.46046799421310425,
        0.28976404666900635,
        0.1404852718114853
      ]
    ],
    "bias": [
      -1.55692458152771,
      -0.5266211032867432,
      -0.49914684891700745,
      -0.47318729758262634,
      0.8702187538146973,
      0.8217980861663818,
      0.9163573980331421,
      1.2065603733062744
    ],
    "activation": "sigmoid"
  },
  "head": {
    "weights": [
      -2.188765287399292
    ],
    "bias": 0.32789281010627747,
    "activation": "sigmoid"
  },
  "embedding_summary": {
    "count": 15,
    "dims": 8,
    "mean": [
      0.5217025935800241,
      0.5501517254238327,
      0.5930666928475451,
      0.5726860058881963,
      0.4817090153694153,
      0.501190117560327,
      0.44069284150997795,
      0.5216625083237887
    ],
    "std": [
      0.40296742624145965,
      0.4006219354810066,
      0.4616826771078762,
      0.40579983614714327,
      0.3927862485267869,
      0.4016993808261211,
      0.4067124829499263,
      0.4272627177098268
    ]
  },
  "metrics": {
    "queries": 5,
    "recall_at_k": 0.8333333333333333,
    "mrr_at_k": 1.0,
    "ndcg_at_k": 0.9459487321811977,
    "rows": [
      {
        "query_id": "q1",
        "topk": [
          "CN202410001A",
          "CN202355566A",
          "JP2023176543A"
        ],
        "recall": 0.6666666666666666,
        "mrr": 1.0,
        "ndcg": 0.8124242481930318
      },
      {
        "query_id": "q2",
        "topk": [
          "CN202311998B",
          "CN202209876U",
          "JP2023176543A",
          "CN202355566A"
        ],
        "recall": 1.0,
        "mrr": 1.0,
        "ndcg": 1.0
      },
      {
        "query_id": "q3",
        "topk": [
          "JP2023176543A",
          "CN202410001A"
        ],
        "recall": 0.5,
        "mrr": 1.0,
        "ndcg": 0.9173194127129571
      },
      {
        "query_id": "q4",
        "topk": [
          "CN202209876U",
          "CN202311998B",
          "CN202410001A",
          "JP2023176543A"
        ],
        "recall": 1.0,
        "mrr": 1.0,
        "ndcg": 1.0
      },
      {
        "query_id": "q5",
        "topk": [
          "CN202355566A",
          "CN202410001A"
        ],
        "recall": 1.0,
        "mrr": 1.0,
        "ndcg": 1.0
      }
    ],
    "train_mse": 6.659721407122254e-05,
    "candidate_k": 24,
    "embedding_dim": 8
  }
}
